tree
version=v4
num_class=1
num_tree_per_iteration=1
label_index=0
max_feature_idx=49
objective=lambdarank
feature_names=speedlimit num_lanes roadwidth elevation_m near_steep_slope near_landslide is_bridge is_snow_emergency_route winter_crash_count winter_crash_count_log winter_crash_fatal winter_crash_fatal_log snow_complaint_count snow_complaint_count_log plow_coverage_score plow_coverage_score_log domi_closure_count domi_full_closure_count domi_class_enc paveclass_enc highway_type_osm_enc surface_osm_enc oneway_enc penndot_aadt penndot_pavement_idx has_penndot_data incline_pct bridge_age_years mid_lat mid_lng total_snowfall_cm max_daily_snowfall_cm min_temp_c max_wind_kmh duration_days precip_total_mm day_offset days_since_peak_snowfall is_post_storm cumulative_snowfall_cm cumulative_thaw_degree_hours daily_snowfall_cm snow_x_steep_slope snow_x_incline temp_x_bridge wind_x_roadwidth snow_x_elevation thaw_x_steep_slope post_storm_x_elevation day_offset_x_snow
feature_infos=[5:45] [0:6] [6.5:88] [213:406] [0:1] [0:1] [0:1] [0:1] [0:74] [0:4.3174881935119629] [0:2] [0:1.0986123085021973] [0:341] [0:5.834810733795166] [0:9749] [0:9.1850223541259766] [0:1380] [0:196] [0:5] none [0:8] [0:5] [0:2] [-1:43887] [-1:96] [0:1] none [0:140] [40.363044738769531:40.500003814697266] [-80.088912963867188:-79.866539001464844] [1.0499999523162842:16.239999771118164] [1.0499999523162842:12.810000419616699] [-28.5:1.5] [10.5:39] [1:4] [0.80000001192092896:62.200000762939453] [0:5] [0:4] [0:1] [1.0499999523162842:16.729999542236328] [0:351.60000610351562] [0:12.810000419616699] [0:16.239999771118164] none [-1.5:28.5] [0.11797752976417542:4.3333334922790527] [0.22364999353885651:6.528480052947998] [0:351.60000610351562] [0:0.40599998831748962] [0:67.199996948242188]
tree_sizes=6500 6669 6663 5968 6511 5509 4162

Tree=0
num_leaves=63
num_cat=0
split_feature=37 12 8 8 3 12 17 12 34 16 33 41 39 12 3 30 32 32 39 18 39 30 36 18 46 35 32 30 16 36 16 8 12 3 3 41 33 32 16 23 17 45 29 32 17 8 32 14 16 46 14 41 8 14 30 17 34 30 12 8 30 12
split_gain=65.1794 52.2307 14.9134 13.4255 9.76833 7.46557 6.02117 5.67393 7.45404 4.23064 3.89169 3.43146 2.73708 2.93523 2.26389 2.22555 2.19621 1.85516 1.8306 1.80892 1.72114 1.65131 1.61304 1.59702 1.51671 1.4692 1.34089 1.31122 1.28127 1.44437 1.2309 1.21194 1.18986 1.07776 0.982617 0.887984 0.875715 0.796878 0.749897 0.741248 0.697958 0.697881 0.695244 0.688217 0.68294 0.587709 0.526075 0.479881 0.472575 0.463183 0.461251 0.422791 0.418417 0.55033 0.409714 0.396669 0.388714 0.35805 0.349569 0.341221 0.262694 0.249778
threshold=1.5000000000000002 49.500000000000007 14.500000000000002 11.500000000000002 281.50000000000006 17.500000000000004 1.0000000180025095e-35 62.500000000000007 1.5000000000000002 40.500000000000007 22.000000000000004 1.2950000166893008 15.855000495910646 103.50000000000001 303.50000000000006 1.2250000238418581 -21.55000019073486 -5.1499998569488517 1.0849999785423281 1.5000000000000002 4.2699999809265146 1.2250000238418581 1.5000000000000002 1.5000000000000002 0.36039501428604132 18.149999618530277 -16.650000572204586 3.0099999904632573 67.500000000000014 2.5000000000000004 63.500000000000007 9.5000000000000018 61.500000000000007 351.50000000000006 286.50000000000006 6.055000066757203 30.349999427795414 -24.30000019073486 161.50000000000003 8841.0000000000018 4.5000000000000009 1.2846994996070864 -79.999889373779283 -8.8499999046325666 15.500000000000002 9.5000000000000018 -16.650000572204586 335.50000000000006 101.50000000000001 0.28328999876976019 32.500000000000007 4.0950000286102304 7.5000000000000009 151.50000000000003 2.6250000000000004 41.500000000000007 1.5000000000000002 1.2950000166893008 2.5000000000000004 28.500000000000004 15.960000038146974 1.5000000000000002
decision_type=2 2 2 2 2 2 2 2 2 2 2 2 2 2 2 2 2 2 2 2 2 2 2 2 2 2 2 2 2 2 2 2 2 2 2 2 2 2 2 2 2 2 2 2 2 2 2 2 2 2 2 2 2 2 2 2 2 2 2 2 2 2
left_child=1 3 7 5 17 23 33 19 15 36 34 24 13 18 -13 -9 56 25 -6 37 -12 -18 -20 35 -8 26 38 44 29 32 -21 39 50 48 -10 55 -5 -2 -3 -17 -19 -36 54 -44 -11 -22 -29 -42 -7 -39 -4 -28 53 -25 -27 -1 -15 -32 -51 -48 -14 -52
right_child=2 4 28 9 12 6 11 8 10 27 20 14 60 16 -16 31 21 40 22 30 45 -23 -24 52 -26 42 51 46 -30 -31 57 -33 -34 -35 41 -37 -38 49 -40 -41 47 -43 43 -45 -46 -47 59 -49 -50 58 61 -53 -54 -55 -56 -57 -58 -59 -60 -61 -62 -63
leaf_value=-0.054156096352181105 0 0.011567340016029284 0 0.048301918193181588 -0.0053107164457884383 0.042197672576787554 0 0 0 0.025181872655244682 0.0041712331312570216 -0.013698200520426607 -0.016980999093652367 -0.0072415106788593061 0.011037400402159224 -0.063530755675229367 0.0039526519315031608 0.0049853312220621837 0.03492359532551146 0 -0.041208950245926315 0.058256405020708495 0.00048157043325063227 0 -0.030941219285408741 0 0.03158040445805483 0.0014236675767858758 -0.0037355067644446478 -0.0061280051882692506 0 0 0 0 0.03994095931230579 0 0 0 -0.019605950382079216 0 -0.028156503177286379 0 0.018878635601971033 -0.008590442181891712 0 0 -0.023605020830502192 0 0 0 0 0 0 -0.025235268975478675 -0.025354869157511992 0 0.013987305955418489 -0.041755897370777388 -0.067272684099958499 0 0 0.048648984841220592
leaf_weight=17.016253955456715 0.37822848418727417 1.7390385086691851 0.29282123612210664 8.2125232915495889 1.6704944439261442 4.3762701986706807 4.3389411784573921 1.3181474819139136 0.93532084069738441 3.5832513034492859 2.3106744546894333 19.570946653662759 1.0046481538738579 0.96219418774853638 13.529117494097589 8.292510904270781 2.7985093142924589 0.52948213589843263 53.333271525625605 4.3016508661203243 3.2819686477560031 39.281050362484166 5.2633766242070115 1.6210714873086534 26.690435464735856 0.31711868767160956 9.0770265298888262 1.1731897879144524 3.7905945440470532 0.97992327956671932 0.71115010124049138 1.0023608424089605 0.84243539783710719 0.85126748162292631 4.7804580656957114 0.90013608862136507 1.2548534335001011 0.42360953349270758 1.5773684936320931 0.12664486650464901 4.1661089563312999 0.38786640150283336 2.5329660555216833 1.5053132879547764 3.1966494962798606 0.18802835061433132 4.4729780752277293 0.78605403328765522 0.22579864875297051 0.40409836560138401 0.28222362640008203 0.80416291202709622 1.6090166452886476 3.9848632839166385 2.2542555991676636 0.70687731904763396 2.3847951851821563 4.974522123549832 33.870232782435778 0.33072300285493827 0.45766823441954319 3.7197922229206597
leaf_count=50327 3120 3038 397 11039 3240 6447 16530 5347 2084 7236 3409 49786 1188 2491 27279 25411 6187 879 90809 9404 4784 54757 9848 4230 59787 700 15445 1969 7680 1385 1918 3424 1275 1474 6026 3741 1285 2548 2945 421 12857 726 4932 2432 8867 689 8132 3091 385 2315 369 1504 4455 8571 2512 2653 3229 12225 93419 1361 1198 4014
internal_value=-0.000156276 0.0122235 -0.0396749 -0.0117762 0.0335853 -0.0200325 -0.0104396 -0.0479777 -0.0226379 0.0213682 0.00338266 -0.0152485 0.0401099 0.0411368 -0.00282285 -0.0494048 0.0524755 0.00410946 0.0307777 -0.0586657 -0.0205087 0.0555553 0.0323604 -0.0423624 -0.026773 0.0119076 0.0209006 0 0.0134793 0.0255186 -0.0261355 -0.0566539 0.0350835 0.0316751 0.028572 -0.0504838 0.043438 -0.0653443 -0.000354935 -0.061719 -0.0163773 0.0355749 -0.00382905 0.00504515 0.0144495 -0.0370297 -0.0134587 -0.0230344 0.0392529 -0.0660922 0.0432219 0.0289975 -0.0122791 -0.0178942 -0.0193445 -0.0527019 0.00278301 -0.0382852 -0.0667166 -0.0201179 -0.00778184 0.0463832
internal_weight=327.685 250.09 77.5953 117.645 132.445 95.421 69.5828 67.6875 22.624 22.2242 11.8843 64.1294 107.156 105.694 33.1001 10.7397 45.4265 25.2889 60.2671 45.0635 5.78067 42.0796 58.5966 25.8382 31.0294 19.8073 13.1976 12.7568 9.90779 6.1172 9.98732 9.42152 5.13727 5.45334 6.10365 18.6233 9.46738 35.0762 3.31641 8.41916 5.48165 5.16832 6.60965 4.03828 6.7799 3.47 5.97689 4.95216 4.60207 34.6979 4.29484 9.88119 7.21495 5.60593 2.57137 17.7231 3.34699 5.68567 34.2743 4.8037 1.46232 4.00202
internal_count=691226 498836 192390 275554 223282 235665 161688 177270 52321 39889 17718 153382 172947 170561 77065 34603 66664 50335 103897 124949 8882 60944 100657 73977 76317 33508 22932 27565 15120 7440 23547 29256 6055 8306 8836 56721 12324 101402 5983 25832 16827 6752 10576 7364 16103 5473 11462 15948 6832 98282 4780 16949 17256 12801 3212 52980 5720 14143 95734 9493 2386 4383
is_linear=0
shrinkage=0.05


Tree=1
num_leaves=63
num_cat=0
split_feature=12 36 39 12 30 31 46 17 40 46 31 39 30 33 33 30 12 30 39 46 29 40 39 30 30 30 41 39 30 30 17 31 41 40 40 16 33 46 45 14 24 39 37 17 31 42 39 40 39 33 8 30 40 16 39 41 29 14 8 8 41 8
split_gain=91.0169 71.2175 25.5076 20.6272 19.8661 24.6534 14.8171 7.82391 6.4169 5.98949 5.7854 14.8728 10.3169 8.23721 5.69923 8.24939 5.56422 4.45066 5.19712 11.8449 5.85286 4.16733 4.68595 4.15992 4.10562 3.88761 3.51556 3.41915 3.40095 5.61253 3.31826 3.13151 2.99809 2.55501 2.52821 2.5144 2.48652 2.25672 2.20428 2.14479 2.13172 1.83851 1.82093 1.71303 1.83774 1.58164 1.50334 1.41494 1.38282 1.35888 1.32234 1.29512 1.28651 1.28036 1.165 1.13552 1.02765 0.912133 0.84659 0.725515 0.539013 0.482184
threshold=103.50000000000001 1.5000000000000002 11.75999975204468 180.50000000000003 2.029999971389771 6.370000123977662 4.522559881210328 5.5000000000000009 73.200000762939467 0.97450497746467601 2.8349999189376835 4.3750000000000009 1.9250000119209292 18.849999427795414 23.650000572204593 1.7149999737739565 38.500000000000007 1.2950000166893008 2.8349999189376835 0.72583001852035534 -79.985919952392564 6.6000001430511483 6.5099999904632577 1.2250000238418581 3.429999947547913 12.320000171661379 12.460000038146974 1.5049999952316286 3.429999947547913 6.4400000572204599 1.0000000180025095e-35 12.460000038146974 1.2250000238418581 43.799999237060554 52.199998855590827 58.500000000000007 27.44999980926514 0.46487000584602362 0.72866928577423107 450.50000000000006 89.500000000000014 1.5749999880790713 2.5000000000000004 1.0000000180025095e-35 7.1749999523162851 6.4400000572204599 1.3650000095367434 11.400000095367433 14.525000095367433 27.750000000000004 14.500000000000002 1.2250000238418581 21.599999427795414 71.500000000000014 2.904999971389771 1.435000002384186 -79.919807434082017 5.5000000000000009 10.500000000000002 30.500000000000004 0.10500000044703485 48.500000000000007
decision_type=2 2 2 2 2 2 2 2 2 2 2 2 2 2 2 2 2 2 2 2 2 2 2 2 2 2 2 2 2 2 2 2 2 2 2 2 2 2 2 2 2 2 2 2 2 2 2 2 2 2 2 2 2 2 2 2 2 2 2 2 2 2
left_child=1 2 10 6 21 42 8 33 17 37 12 16 14 -13 15 -1 49 32 19 -19 -20 22 40 50 -18 -15 43 -10 54 55 -16 -4 38 36 -7 -25 41 46 -2 -29 53 -5 45 -8 -45 61 51 -31 -46 -12 -23 -9 -48 -3 -11 -30 -43 -39 -59 -52 -36 -6
right_child=3 4 31 7 5 34 26 9 27 28 11 13 -14 25 30 -17 24 18 20 -21 -22 23 -24 35 -26 -27 -28 39 29 47 -32 -33 -34 -35 60 -37 -38 57 -40 -41 -42 56 -44 44 48 -47 52 -49 -50 -51 59 -53 -54 -55 -56 -57 -58 58 -60 -61 -62 -63
leaf_value=0.075366753908896078 -0.01050509360007207 -0.07112831012552881 -0.05206995372907313 0 0.057806707027380271 -0.04856445273128282 -0.010158967655740557 0.0098128779323388808 0 0 -0.038368057145465512 0 0.088245602030868689 0.071857725588137453 -0.011469709929904211 0 -0.0055247656973776132 -0.014394569611909519 -0.0040078910731738164 -0.051377675753448981 -0.027387887202723615 0.00058816375265349698 0.016570122770613035 0.036755091283091852 0.047537671008310842 -0.004871952941317704 -0.026999184923286713 -0.068965407783248764 0 0.030008743002140223 0.03073656954108574 0.014935878100596812 -0.025110740254059811 -0.010346210571901229 -0.0077752347783908455 -0.015115822965182822 0 0 0.047022410566744714 0 0 0.051002079110961641 -0.0011705673892327077 -0.0092544357554944015 0.041649928674038855 0 0.037432982930161209 -0.0061578221108190175 0 0.0062941158110295051 -0.044486860320374966 -0.034919464496572572 -0.0027920188293542284 0 0.043685388144056182 -0.03188888183898226 0 -0.034016488769360663 0 -0.0043805440336629779 0.021107127150263111 0
leaf_weight=19.617638824904137 0.61078089234069821 14.279482934103729 5.3949004534133556 1.4232557891009587 15.37886748216261 9.0513271582203725 0.97917424431216815 0.54819215643874764 1.7627642429579271 1.0745740584388865 6.3756527960658813 5.0382864783623544 28.771244142293654 22.464116472676327 3.7554645507116247 4.9925099529209538 5.7648875429913442 47.440100880023238 55.067743549067018 46.456028801176217 57.859821789597845 1.2199791592665885 0.68466168077429657 2.9774797100089918 4.6004711303285148 0.86298235765934705 1.5678469210397441 13.038354250309563 2.7745773287952051 9.608998324689308 20.809707123546104 0.63472836954315415 1.0791723899310453 1.6685522628768001 0.4884138757479366 2.0115652399817918 3.8286902714098678 0.93541966357224993 3.6109091741418524 0.65576404371677277 1.3575707158452122 14.090948339518951 0.60543841187063563 0.84310138854198058 12.269041523093618 0.60621376316521569 2.0392404954181989 1.3830091564304883 2.5076483048615037 0.39057209035308904 8.4260084450215782 1.544323967769742 1.4584944705602536 0.4871977329967202 5.9960669827378297 7.6617272415896878 1.0086789635461091 16.811885366681967 0.80553945272913452 3.4674246116919667 0.8583682580065215 0.46517236514591864
leaf_count=64671 907 8708 12736 525 95471 20403 246 988 1958 247 18737 16982 102020 60040 3436 13388 13519 14559 14480 9081 17037 11479 2196 11653 13325 2476 151 6837 1493 2999 56877 3252 759 931 6262 21791 903 326 4331 294 217 2932 13334 273 2858 1141 478 770 1874 5964 851 210 665 9501 1390 1023 325 4200 453 163 3823 307
internal_value=0.000425597 0.0275472 0.0484986 -0.0158054 -0.015716 0.0149148 -0.0227786 0.00681605 -0.0263008 -0.0034275 0.0535856 0.035215 0.0628464 0.0562498 0.0446295 0.0619632 -0.00054565 -0.023399 -0.0246351 -0.0336429 -0.0164726 -0.039984 -0.0578075 -0.0180857 0.0198839 0.0678715 0.0183379 -0.0574498 0.011228 0 0.0229654 -0.0399396 0.0149423 0.0305918 -0.0399833 0.0139232 0.0356921 -0.0212189 0.0339798 -0.0649295 -0.063825 0.0432764 0.0503795 0.0264071 0.0310112 0.053553 0.00234298 0.0232866 0.0356281 -0.0320903 -0.0321487 -0.0180233 0.0211987 -0.0687119 0.036895 -0.0237015 0.0479325 -0.029072 -0.03165 -0.0369074 0.00477591 0.0564531
internal_weight=512.249 191.838 129.473 320.41 62.3652 27.4538 245.748 74.6622 227.581 52.642 123.444 45.497 77.9466 28.3654 49.1753 24.6101 17.1316 212.125 206.824 93.8961 112.928 34.9114 16.8089 18.1025 10.3654 23.3271 18.1668 15.4569 28.499 21.4283 24.5652 6.02963 5.30086 22.0201 10.3981 4.98904 20.3516 24.1431 4.22169 13.6941 16.1243 16.5229 17.0557 16.599 15.6198 16.4503 5.59025 10.992 14.7767 6.76622 13.1134 2.09252 3.49773 14.7667 7.07064 10.4363 15.0996 18.5528 17.6174 11.8934 1.34678 15.844
internal_count=691226 594723 387423 96503 207300 140741 75645 20858 70243 15242 371435 131043 240392 79498 138372 78059 51545 61154 55157 23640 31517 66559 20622 45937 26844 62516 5402 9089 7922 6285 60313 15988 5997 5616 30488 33444 4685 7320 5238 7131 18426 3782 110253 5251 5005 96919 2341 3769 4732 24701 12493 1198 1143 18209 1637 2516 3257 4979 4653 1014 10085 95778
is_linear=0
shrinkage=0.05


Tree=2
num_leaves=63
num_cat=0
split_feature=13 16 8 39 8 24 37 31 30 31 34 49 23 35 45 13 30 30 45 3 31 35 28 30 39 16 49 29 29 2 28 39 14 16 28 31 30 41 16 3 37 31 23 16 36 35 49 35 45 45 49 28 14 14 30 37 34 41 34 39 28 13
split_gain=318.198 49.8133 25.1794 21.0696 20.8076 22.884 14.4526 13.6303 10.8426 9.97124 9.05957 8.27329 6.5137 6.19412 5.85997 4.78049 4.26274 8.95637 3.70654 3.64141 3.62971 3.37834 3.53159 3.18615 3.17123 2.5788 2.52819 2.21563 2.07041 2.03943 1.85193 1.82357 1.80029 1.76564 1.77592 1.58638 1.38839 1.35412 1.35284 1.18554 1.14127 1.02286 0.997267 0.877171 0.77004 0.679467 0.679273 0.66479 0.547159 0.518948 0.485478 0.468112 0.456832 0.35624 0.353931 0.346511 0.313185 0.292845 0.368513 0.287888 0.285551 0.25861
threshold=3.8815106153488164 52.500000000000007 11.500000000000002 12.565000057220461 44.500000000000007 85.500000000000014 1.5000000000000002 2.8349999189376835 1.0849999785423281 2.1349999904632573 3.5000000000000004 11.690000057220461 43514.500000000007 24.04999923706055 1.1458780765533449 3.9219243526458745 2.029999971389771 1.2250000238418581 0.50647255778312694 288.50000000000006 3.0099999904632573 21.250000000000004 40.417139053344734 2.029999971389771 3.1150000095367436 100.50000000000001 5.7049999237060556 -79.921310424804673 -80.02965927124022 30.230000495910648 40.454679489135749 12.179999828338625 90.500000000000014 129.50000000000003 40.452634811401374 6.055000066757203 1.3650000095367434 1.5049999952316286 50.500000000000007 253.50000000000003 1.0000000180025095e-35 6.055000066757203 33455.000000000007 71.500000000000014 2.5000000000000004 14.700000286102297 9.0650000572204608 20.149999618530277 0.85207000374794017 0.74763026833534252 16.10000038146973 40.41571235656739 105.50000000000001 47.500000000000007 13.614999771118166 2.5000000000000004 3.5000000000000004 5.2149999141693124 1.5000000000000002 3.429999947547913 40.424669265747077 5.4315338134765634
decision_type=2 2 2 2 2 2 2 2 2 2 2 2 2 2 2 2 2 2 2 2 2 2 2 2 2 2 2 2 2 2 2 2 2 2 2 2 2 2 2 2 2 2 2 2 2 2 2 2 2 2 2 2 2 2 2 2 2 2 2 2 2 2
left_child=1 2 9 6 11 32 8 16 19 -1 15 12 18 40 26 38 17 -3 -4 39 23 22 44 36 -17 30 29 55 45 -11 -19 -15 -6 34 -21 47 -8 -27 -10 -2 57 -30 56 50 48 -16 -25 -22 -5 -7 53 -28 -45 -23 -13 -18 -42 59 -59 -9 -35 -55
right_child=3 7 4 21 5 49 20 13 10 14 -12 54 -14 31 28 24 27 25 -20 33 35 43 -24 46 -26 37 51 -29 41 -31 -32 -33 -34 60 -36 -37 -38 -39 -40 -41 42 -43 -44 52 -46 -47 -48 -49 -50 -51 -52 -53 -54 61 -56 -57 -58 58 -60 -61 -62 -63
leaf_value=0.033616527700104121 0.0046426299781870588 0.061892610904586358 -0.028400831080080798 0 0 0.059443471925282147 0.01060008096874307 -0.0078326657922359547 -0.019033307727130275 0.032921999175847365 -0.029024547971938208 0.025526363397100446 0.00059486112993331055 0.040622731490932561 -0.016022263895278572 0.066647961548611342 0.06231245499564915 0.026405302931323517 -0.064577270245397445 0.044958211790767949 -0.048799683751473116 -0.003881676916240476 -0.017785078123330099 0.046446401587154754 0.046972475996303872 -0.034496244861845847 0 0 -0.054596697934535102 -0.0092721098521995737 -0.013119714895686342 -0.010475287856824137 -0.062620778758897946 -0.017836012780856045 -0.0038030570901106259 0.005591790095264215 -0.029773544667876847 0 0.021580549805131102 -0.036593556926603855 -0.04756076433742245 0 0 0 0 0.016526683717962551 0 0 0.041798020584590943 0.013401847039887924 -0.018724789941274262 -0.025929494667574562 -0.038885487154048139 0.019307947163245912 0 0 0 0 -0.024744339116322473 0.011955388410333747 0 0
leaf_weight=8.9581097256707078 0.56361414642736729 4.4220930724441194 14.88629241195383 1.0548947481438533 1.8057214191708242 5.2242525861256564 1.6138744367617603 1.6823833093926688 2.0184179691982811 5.4097020510039346 1.640010105260443 1.6879638951895675 3.4383383897757076 2.7852950690466964 1.3378523931969533 85.806541610840043 8.3834368056886852 5.2616891277159139 148.14554517742525 4.5558442824767553 3.3392877286041771 1.4266241678706117 3.2975750975201663 3.1379879971864288 88.846880772239274 5.8706219504638124 1.1905387902211257 1.7126957737564215 10.225624914807209 2.3005175244329621 2.4667445413000451 0.69689084143737989 7.290093694889265 1.0065796859598775 0.98452110677681037 0.53261262921841979 2.1930138945854196 2.4437047882643697 2.136299184532362 3.4876084249990527 10.462092352625399 0.54825350668625183 0.23180561281151391 1.1525951886824257 0.99101824682293216 1.0820225192474024 0.22749776602358895 0.26239984534140592 5.5864786921665655 4.1542728154136057 1.0586793408756419 4.2317079959598232 4.0064888094548223 2.3665645142609724 0.25543127193122916 0.075304470450647254 0.16935834977266573 1.7752541393419963 1.7565035263542084 1.4548262482599055 0.3971255816904885 0.31673211866291229
leaf_count=53571 1277 27345 1561 762 183 281 12417 7926 1761 21606 1307 2086 78 15987 3202 110625 47213 14981 16010 6107 9724 501 6163 22042 85152 28876 4151 10239 8429 5770 12951 3802 899 508 1125 7275 14374 8304 5619 1790 41315 2514 38 2443 503 3120 3969 3787 2195 332 3947 14133 3853 1674 620 2780 887 6520 4819 7431 329 37
internal_value=-4.24977e-05 -0.0361322 -0.0463527 0.0438916 -0.0536205 -0.00162645 0.0488181 0.00745356 0.0520426 -0.00637579 0.0549557 -0.0590913 -0.0603807 -0.0217181 -0.0222794 0.0561767 0.0283341 0.0114515 -0.0618097 0.00121157 -0.00351636 -0.00217836 0.0147363 0.0150316 0.0574256 -0.0063861 0.000288237 0.0527843 -0.0434687 0.0184411 0.0111164 0.0257454 -0.0536431 0.0228815 0.0342674 -0.0341794 -0.0105966 -0.0240799 0 -0.027087 -0.034096 -0.0515042 -0.044009 -0.0215939 0.0321579 0 0.0418246 -0.0444203 0.0370878 0.0471865 -0.00038806 -0.0201698 -0.0333033 0.00482679 0.0196216 0.0614171 -0.0465802 -0.00863673 -0.0157875 0 -0.00844223 0.0144753
internal_weight=497.831 273.823 222.172 224.008 186.888 18.4743 202.75 51.6507 191.443 35.2843 180.448 168.414 166.47 21.0144 26.3262 178.808 30.6363 20.4649 163.032 10.9953 11.3067 21.2577 10.93 7.17237 174.653 16.0428 13.1325 10.1714 13.1938 7.71022 7.72843 3.48219 9.09582 6.94407 5.54037 4.1343 3.80689 8.31433 4.15472 4.05122 17.5322 10.7739 10.8633 10.3277 7.63239 2.41987 3.36549 3.60169 6.64137 9.37853 5.1686 5.42225 5.15908 4.10992 1.9434 8.45874 10.6315 6.66897 3.53176 3.13721 1.40371 2.6833
internal_count=691226 379960 138546 311266 22050 1695 289188 241414 215600 116496 204464 20355 17649 88725 62925 203157 152689 92457 17571 11136 73588 22078 9623 52802 195777 65112 45660 60232 17265 27376 27932 19789 1082 8069 7232 20786 26791 37180 7380 3067 68936 10943 42240 12455 3460 6322 26011 13511 2957 613 6159 18284 6296 2212 2706 49993 42202 26696 11339 15357 837 1711
is_linear=0
shrinkage=0.05


Tree=3
num_leaves=57
num_cat=0
split_feature=8 13 13 40 16 35 29 46 39 33 30 0 41 8 30 40 40 46 18 41 23 13 41 13 16 35 14 49 33 3 35 33 33 45 14 3 33 44 46 3 33 39 8 23 30 35 17 39 29 33 30 30 8 33 46 46
split_gain=76.3814 94.4463 12.9897 13.1516 9.61687 8.28176 7.20602 6.849 27.0063 10.3553 6.42221 6.14178 5.87007 4.84828 4.55027 4.98823 4.7802 3.53105 3.25403 2.98966 2.90504 2.71951 2.26855 1.94312 1.56808 1.53402 1.50562 1.42354 1.37561 1.33832 1.194 1.15193 1.03982 0.855377 0.812367 0.742362 0.715957 0.699792 0.653791 0.586949 0.576218 0.424303 0.359965 0.295316 0.192922 0.184724 0.115689 0.0981877 0.0608988 0.0538227 0.0405767 0.0520835 0.0257464 0.0150389 0.00552781 0.00151269
threshold=36.500000000000007 4.930863857269288 3.7012257575988774 43.799999237060554 34.500000000000007 2.7500000000000004 -80.009906768798814 1.164449989795685 3.6399999856948857 18.300000190734867 1.2250000238418581 17.500000000000004 3.3249999284744267 7.5000000000000009 5.6700000762939462 6.6000001430511483 39.000000000000007 0.40186998248100286 2.5000000000000004 1.3650000095367434 6599.0000000000009 5.2176458835601816 3.8500000238418584 5.1269311904907235 4.5000000000000009 15.250000000000002 1.0000000180025095e-35 9.9400000572204608 20.550000190734867 215.50000000000003 34.399999618530281 17.35000038146973 27.60000038146973 0.5002756416797639 1.0000000180025095e-35 313.50000000000006 37.899999618530281 2.6499999761581425 1.2439350485801699 235.50000000000003 16.150000095367435 3.429999947547913 9.5000000000000018 1240.0000000000002 1.3650000095367434 3.3500000238418584 4.5000000000000009 2.2050000429153447 -80.012348175048814 33.549999237060554 2.2050000429153447 1.1550000309944155 18.500000000000004 23.300000190734867 0.3636500090360642 0.445130005478859
decision_type=2 2 2 2 2 2 2 2 2 2 2 2 2 2 2 2 2 2 2 2 2 2 2 2 2 2 2 2 2 2 2 2 2 2 2 2 2 2 2 2 2 2 2 2 2 2 2 2 2 2 2 2 2 2 2 2
left_child=1 2 4 5 13 24 25 9 19 31 17 -12 23 32 22 21 -17 -7 20 41 30 -16 27 45 -4 -2 -26 -10 39 52 -5 50 43 -27 -25 40 37 -31 -21 -8 -15 -9 54 -1 -30 -11 -44 -22 -24 -34 51 -3 -6 -37 -20 -41
right_child=6 7 3 18 29 10 28 8 14 12 11 -13 -14 35 15 16 -18 -19 42 38 47 -23 48 34 26 33 -28 -29 44 36 -32 -33 49 -35 -36 53 -38 -39 -40 55 -42 -43 46 -45 -46 -47 -48 -49 -50 -51 -52 -53 -54 -55 -56 -57
leaf_value=-0.03379243118077678 0.070140465783701672 0 0.00069949140403500489 -0.052602921000093186 0 0.033129418730196515 -0.032318791048764478 0.017448416758083344 0.032731321330713152 0 0.027197117712372328 -0.010626094436752035 -0.006545258790036361 0 0.0014993664296549577 -0.038149103050753669 0.030443360713865442 -0.01743833883659433 0 -0.0088471533602871143 0.010038378021746452 0.051567649870863812 0 0 0 0.0089935174473220972 -0.062338402358268458 -0.0076194867207539018 0 -0.046991279490776715 0 -0.040444390440869081 0.0077336282287623209 0.045319702270116481 0.064379805596339781 -0.0037139676157885793 0 0 -0.064406931489871408 0.0012828432794080643 0.033628181185675766 -0.0076148186973344009 0.021032592385329882 0 0.021703588089744145 0.011873480233120725 0 0 -0.032741047525523988 0 0 0.0093678193657345133 0.0051813377364205403 0 -0.0041983733790507119 0
leaf_weight=6.5337244699495027 35.547853080849791 0.086879129186853921 0.30812725063878854 26.062774551188351 0.20921291647698481 12.916460181855653 1.6234595426421945 0.94869039137483813 3.0579886213745331 0.46605436479512663 9.0814419672585682 211.32248840766715 2.4722972428935455 0.35803083415203119 4.1555430950691052 2.5765396546430557 3.7078413385960971 2.4074319294304578 0.093608460039830699 2.5611130513134395 0.95258357088971368 37.938048360127596 0.96257535664335625 1.1349150430714861 0.35694823541416543 6.0654964901050317 7.3374162092950428 1.3659888372094426 0.17052955323561025 58.597549877079587 1.0183335364864081 1.7009529295937682 0.64210949193710565 6.6942531451446712 37.096497699490556 0.72571940376849375 0.15096874721348186 0.73524735697230781 6.125150409987441 0.29796443016653018 5.9469552158848842 0.89783347478805808 0.94160494911614001 0.99292691575851666 1.4402654495536351 2.5726280883695836 0.28270260059844077 0.4998677717078408 1.5152199371368622 0.3110265097352567 0.20852199962246232 0.67203679807005301 0.397575319238058 0.47838880026023389 0.49446765222671729 0.30184413745337224
leaf_count=40310 675 327 31 59699 561 12886 520 856 2313 1512 3200 220563 380 1340 6035 1381 2043 1972 498 163 1727 4565 94 450 165 61 12495 913 369 237933 4033 331 9769 433 11619 2352 2751 2182 849 79 13656 307 252 3977 1887 8018 859 1409 445 1750 1006 3355 87 2205 1148 430
internal_value=0.00130507 -0.00520322 -0.0180434 -0.0126589 -0.0362998 -0.00847665 0.0575409 0.034256 0.0220651 0.0494011 -0.00640685 -0.00872467 0.0554918 -0.000110071 0.0363231 0.0415443 0 0.0226459 -0.042876 -0.0446258 -0.0470026 0.047484 0 0.0599166 -0.0534749 0.0626184 -0.0579199 0.0178873 -0.00168319 -0.0452128 -0.0506708 -0.0260864 -0.0247712 0.033304 0.0630663 0.0244626 -0.0460303 -0.0464024 -0.0550865 -0.0234245 0.0301438 0.0011396 0.00610928 -0.0307476 0.0177546 0.00602382 0.0177167 0.00388317 -0.0284172 0.00281885 0.000977745 0.00614792 0 0 -0.00341308 0
internal_weight=514.521 462.379 350.156 274.076 76.0794 243.73 52.1417 112.223 65.8125 46.4108 235.728 220.404 43.7424 15.9889 55.2797 48.378 6.28438 15.3239 30.3459 10.5328 28.5336 42.0936 6.90177 41.2701 8.00249 48.3076 7.69436 4.42398 3.83406 60.0906 27.0811 2.66839 8.47979 12.7597 38.2314 7.50909 59.4838 59.3328 8.68626 2.22327 6.30499 1.84652 1.81238 7.52665 1.6108 3.03868 1.22431 1.45245 2.4778 0.953136 0.967438 0.758916 0.606788 1.20411 0.588076 0.599809
internal_count=691226 686772 639810 320937 318873 251312 4454 46962 19964 26998 238621 223763 21979 75359 17789 14024 3424 14858 69625 2175 66868 10600 3765 21599 12691 1169 12660 3226 3285 243514 63732 5019 55806 494 12069 19553 242866 240115 1012 1029 14996 1163 2757 44287 2256 9530 1111 3136 539 11519 4688 3682 648 4557 1646 509
is_linear=0
shrinkage=0.05


Tree=4
num_leaves=63
num_cat=0
split_feature=28 8 28 3 3 36 28 18 28 33 46 40 46 33 33 15 46 35 33 16 46 38 35 29 35 8 33 3 33 35 18 35 40 35 16 41 35 46 8 41 36 35 49 35 23 41 45 8 33 27 16 41 15 23 41 36 3 45 35 35 41 28
split_gain=103.43 61.1794 45.2321 19.3452 16.7438 14.2926 11.0607 9.89471 9.46412 6.85665 6.8331 5.99309 5.56283 4.41246 4.40542 4.09667 4.06136 6.40594 3.93614 3.57571 2.67748 2.35627 2.33756 1.95812 1.85403 1.84183 1.55861 1.52396 1.47299 2.00776 1.45531 1.38519 1.23669 1.19146 1.10875 1.06519 0.992899 0.787325 0.730804 0.679499 0.666543 0.517883 0.506665 0.475684 0.522739 0.36072 0.32958 0.302749 0.281332 0.258292 0.251697 0.168743 0.147433 0.14676 0.108219 0.104708 0.0924456 0.0731096 0.0491306 0.0361101 0.0318878 0.0188342
threshold=40.449144363403327 44.500000000000007 40.425825119018562 368.50000000000006 333.50000000000006 1.5000000000000002 40.420965194702156 1.5000000000000002 40.412145614624031 29.500000000000004 0.80639997124671947 6.6000001430511483 1.0869950056076052 28.399999618530277 30.94999980926514 6.8254594802856454 0.50687000155448925 9.2999997138977069 16.150000095367435 53.500000000000007 0.36693999171257025 1.0000000180025095e-35 4.0000000000000009 -80.011386871337876 21.44999980926514 46.500000000000007 29.000000000000004 314.50000000000006 32.449998855590827 20.900000572204593 4.0000000000000009 20.500000000000004 12.59999990463257 27.60000038146973 111.50000000000001 1.9250000119209292 3.6499999761581425 0.44233000278472906 13.500000000000002 0.59499999880790722 1.0000000180025095e-35 2.9500000476837163 2.554999947547913 3.4500000476837163 8841.0000000000018 0.10500000044703485 1.335550129413605 9.5000000000000018 37.899999618530281 113.50000000000001 45.500000000000007 1.435000002384186 5.4531798362731942 20685.000000000004 0.17499999701976779 1.5000000000000002 329.50000000000006 1.3641322851181032 17.000000000000004 21.250000000000004 0.17499999701976779 40.453962326049812
decision_type=2 2 2 2 2 2 2 2 2 2 2 2 2 2 2 2 2 2 2 2 2 2 2 2 2 2 2 2 2 2 2 2 2 2 2 2 2 2 2 2 2 2 2 2 2 2 2 2 2 2 2 2 2 2 2 2 2 2 2 2 2 2
left_child=1 2 3 5 14 6 8 31 -1 16 23 19 21 24 15 25 17 30 -3 -12 -8 -9 35 26 -7 49 -5 42 34 36 -4 41 -15 -24 46 -18 -30 -19 61 -25 -29 -6 48 -36 -45 -44 52 -43 -11 53 51 54 -16 -2 -33 -42 -38 59 -40 -52 -23 -17
right_child=4 18 9 10 7 13 20 12 -10 27 11 -13 -14 32 28 38 22 37 -20 -21 -22 60 33 39 -26 -27 -28 40 29 -31 -32 50 -34 -35 43 -37 56 -39 58 -41 55 47 45 44 -46 -47 -48 -49 -50 -51 57 -53 -54 -55 -56 -57 -58 -59 -60 -61 -62 -63
leaf_value=0.01233655302729045 -0.055761234070027733 0.018734901214150428 -0.041362672013277209 -0.028900386487636143 0 -0.047582283519821522 -0.0097260510760954228 0.063064326270667714 -0.017235499455158242 -0.023386787323258284 0 -0.021166866473305138 -0.023261943037711903 0.023180691864863719 0 0 -0.023865598341770641 0 0.066679697714824682 0.059379887468176865 0.034603515503126868 -0.0055156481661754403 -0.053514170197862393 0 -0.0083459674812618335 0 0.0094980793296452638 0 0 0.011778965798280177 0 0 -0.012077709234189674 -0.011123186608934146 0 0.0096153034165961729 -0.048644155486289253 0.030950969479867946 0.01602505212995876 0.031979024192339139 0.031053456251663364 -0.040630717290071693 -0.0084084528168887063 0.031880876141101404 0 0.013797978673620807 0 0 0 0 0 0 -0.023676359038076997 0 0.018254957022623249 0 0 0 0 -0.012982594748091734 0 -0.018014229479422307
leaf_weight=109.24118019452726 79.615908375363688 8.4805304762048745 9.2678797262105945 3.7128278379168478 1.0352622768332391 12.451787501878931 1.9026801271877491 6.2327359582627633 33.343289312757634 2.812382297775001 2.5956586158317796 1.2374898752732395 1.3471789685654583 3.6919156569006182 0.56503089580837595 0.07820693118628641 2.1250186463657874 3.4289359329043227 48.002506605747158 35.310845838393107 49.460828171066396 0.62042054518860801 31.765321849424254 0.59577362852723892 7.2727520215821633 1.6303987420528745 2.2310459973696197 0.69753578045038001 0.21290404256433282 0.58163790770049661 1.1766254609356117 0.18851305749649272 1.742568585086701 4.6611831677109867 0.42821300656942218 2.6785487214438035 3.4048614963057848 3.5810815501263278 1.4783547125084626 3.2586242218987991 3.5377541024954553 7.3862680917839025 0.81549961039763763 2.4014103681238343 0.32397313497312996 1.6975558914036808 1.0020838141826969 0.85452340925348824 0.13628195179626335 0.17800571058478354 0.13677730597555626 0.67122173222378467 1.5725380145831875 0.4020741142226133 1.076502640995386 0.57386920435055788 0.11136707775585808 0.24100663169156167 0.77970406892836752 1.3786942724109392 0.38761323780454404 1.4010178116013774
leaf_count=70662 242293 167 25459 2271 2661 45101 2268 860 40594 7400 3378 3196 1569 5621 2540 165 6432 8965 1607 5069 23815 695 73874 1491 11589 210 724 1780 3025 2711 1691 816 6112 10453 1540 3134 9476 3436 477 1277 2563 17667 2866 4686 165 3765 3314 1666 688 362 258 1189 1913 984 649 2484 157 626 214 2615 463 5328
internal_value=0.00117006 0.0135388 0.00523272 0.0146011 -0.0394985 0.00792667 0.0126612 0 0.00510548 -0.0302177 0.0425066 0.0514909 0.0373317 -0.0258956 -0.048261 -0.0521249 -0.0366844 -0.012424 0.0607955 0.0554313 0.0321899 0.0539055 -0.0453267 0.00185144 -0.0363662 -0.0544088 -0.0125778 0.00465094 -0.0117764 -0.0292918 -0.0354506 -0.025822 0.00830466 -0.0496016 0.00137753 -0.00418315 -0.041937 0.0193632 0 0.0250683 0.0223851 -0.0345289 -0.00942848 0.0195886 0.0258872 0.00051956 -0.0125548 -0.0379367 -0.0197422 -0.0554532 0 0.00919526 -0.019873 -0.0555842 0.0152033 0.028826 -0.0477136 -0.00888311 0.0134511 -0.0116752 0 -0.0174265
internal_weight=511.212 393.488 337.005 268.049 117.724 219.107 193.948 21.5567 142.584 68.9555 48.9423 39.144 8.58795 25.159 96.1677 85.5637 58.6846 17.4545 56.483 37.9065 51.3635 7.24077 41.2301 9.79827 19.7245 81.8264 5.94387 10.2709 10.604 4.31077 10.4445 12.9688 5.43448 36.4265 6.29325 4.80357 3.72913 7.01002 3.73728 3.8544 4.80916 9.27605 5.46172 3.1536 2.72538 2.51306 3.13965 8.24079 2.94866 80.196 3.69272 1.93624 2.13757 80.018 1.26502 4.11162 3.51623 1.75648 2.25806 1.51547 1.00803 1.47922
internal_count=691226 379932 378158 223168 311294 205762 137339 31734 111256 154990 17406 11643 3587 68423 279560 250033 133444 39551 1774 8447 26083 2018 93893 5763 56690 243849 2995 21546 29527 15369 27150 28147 11733 84327 14158 9566 12658 12401 6184 2768 6827 21994 14719 6391 4851 6631 7767 19333 8088 243639 6153 2654 4453 243277 1465 5047 9633 3499 691 2873 1158 5493
is_linear=0
shrinkage=0.05


Tree=5
num_leaves=52
num_cat=0
split_feature=13 8 13 41 29 3 32 3 32 32 46 36 8 29 17 33 45 31 49 49 32 41 32 32 8 32 41 45 8 33 3 3 3 3 45 37 17 33 32 33 42 8 46 46 8 8 46 3 3 8 32
split_gain=219.095 229.316 25.209 18.9118 14.5791 14.1624 17.3979 10.4459 7.32557 7.32243 7.10998 6.42104 6.07592 4.80108 4.49953 6.85033 6.12951 3.91924 3.89437 5.11261 3.31659 3.26014 3.54759 2.60984 1.99178 1.69878 1.62511 1.30393 1.28244 1.24573 1.19149 1.17922 0.952787 0.895595 0.773891 0.745422 0.527276 0.523833 0.450128 0.404571 0.342159 0.328003 0.13665 0.128444 0.115466 0.0727033 0.0335283 0.0308581 0.0169764 0.00158387 5.49114e-08
threshold=5.1328485012054452 36.500000000000007 3.8606742620468144 1.2950000166893008 -79.937294006347642 223.50000000000003 -4.9500000476837149 369.50000000000006 -1.0500000119209287 -1.3999999761581419 1.4492800235748293 2.5000000000000004 3.5000000000000004 -79.995082855224595 23.500000000000004 31.949998855590824 1.1920264363288882 3.745000004768372 1.2250000238418581 1.0849999785423281 -0.84999999403953541 0.31499999761581426 -12.100000381469725 -21.650000572204586 11.500000000000002 -8.4999999999999982 1.7850000262260439 2.6005338430404668 3.5000000000000004 27.899999618530277 263.50000000000006 336.50000000000006 323.50000000000006 219.50000000000003 0.52535077929496776 1.0000000180025095e-35 3.5000000000000004 27.44999980926514 -14.499999999999998 28.399999618530277 1.2950000166893008 7.5000000000000009 1.7038699984550478 0.47193999588489538 27.500000000000004 11.500000000000002 0.37243501842021948 344.50000000000006 391.50000000000006 20.500000000000004 -16.650000572204586
decision_type=2 2 2 2 2 2 2 2 2 2 2 2 2 2 2 2 2 2 2 2 2 2 2 2 2 2 2 2 2 2 2 2 2 2 2 2 2 2 2 2 2 2 2 2 2 2 2 2 2 2 2
left_child=1 2 9 18 7 34 13 23 11 33 -9 14 35 -7 15 21 38 -14 19 27 32 22 -2 -5 -23 28 31 -4 -17 44 -8 -18 43 45 -3 -6 -13 -15 50 -31 -40 -21 -22 -11 -20 -1 -34 -28 -35 -47 -16
right_child=8 5 3 4 12 6 30 10 -10 20 -12 36 17 37 16 25 26 -19 29 41 42 24 -24 -25 -26 -27 47 -29 -30 39 -32 -33 46 48 -36 -37 -38 -39 40 -41 -42 -43 -44 -45 -46 49 -48 -49 -50 -51 -52
leaf_value=-0.0086362740104770283 0.00078382473674694418 0.038438610638095685 -0.036931464152691523 0 -0.023681603706251029 -0.051021632170512525 0.0063997451263572494 0.036127722287987211 -0.029254643854671383 0.039472605054614709 -0.02537906263581502 0 0.045181045332937271 -0.00079482234086844213 0 -0.0033294649749635872 0.051503950224312235 -0.015334057232398316 -0.058317348977233563 0.024667182473292502 -0.034961004614397731 0.062259112618552673 0.045300383554256848 -0.038332561630591712 0.0055563308649417267 -0.023758859381284754 -0.005787571591656087 0.0040661119435663803 0.035054239617502349 0 0.058235367019319653 0 -0.0059537888595321987 -0.063849798383007014 0.069791420005582847 0.0031745749522169666 -0.028367768947300961 0.025153636462694792 -0.03614916493030812 -0.029815020056731367 0 0 0 0 0 0.0011932397229535152 0 0 0 0 7.6524850047498921e-06
leaf_weight=0.62998681680801272 7.9906651515048024 15.966596664329698 14.937290401547216 4.8919737596734185 4.618667297359937 7.0044893865724589 3.1123939212448013 9.1646230523620016 1.2872297147059715 2.0020941949696871 5.8751701198525543 0.51125800074805638 14.41698639946844 0.57130036040507759 0.26915362690488109 1.809785017318063 6.2183507558620459 1.5004826553631563 47.30396902173743 3.178817895110114 2.1729988977531316 111.78784037395053 13.765326036533223 44.297964012512239 2.9748993560933732 1.9886725970427495 0.60102301354527288 0.57266806106781665 2.1986327802769665 1.968256231441045 9.2377467027763469 1.2755621569049251 0.36535246670246113 106.87095972989391 45.748043816231075 1.2288056953802877 1.2898163528316215 1.5714844998728947 2.585194225155647 10.407305931770678 0.24723822110172466 0.64140704439341778 0.44914967191289168 0.064191844128799747 0.58458126676487054 0.7810184872651007 0.33910581985583121 0.3231514856342983 0.12272268285050714 0.15362788355196244 0.34421516575093791
leaf_count=1964 2450 196 18783 8416 8955 760 546 2025 729 12384 2033 215 5018 1217 587 205 668 3194 123977 3604 7324 10095 3359 85132 1028 504 441 130 263 1925 414 1344 672 340675 941 1475 1129 358 2259 24135 146 1270 1265 1339 996 953 2322 290 348 448 287
internal_value=0.000932668 -0.0203954 -0.0420999 -0.0287738 -0.0116976 0.0515013 0.0134279 -0.0237189 0.0498616 -0.0604188 0.0104748 0.0510333 0.0217366 -0.0333383 0.0522355 0.0548293 0.015859 0.0370063 -0.0461778 -0.0210302 0 0.0570968 0.031445 -0.0346627 0.0611237 0 0.0376904 -0.0336984 0.0182237 -0.052908 0.0496269 0.0445616 0.0272114 -0.0631987 0.0635335 -0.0154815 -0.0187002 0.015157 -0.0271392 -0.0263983 -0.032602 0.0200131 -0.0320872 0.0381382 -0.0579247 -0.00200989 -9.68613e-05 -0.00184728 -0.0638108 0 0
internal_weight=520.22 362.752 279.54 165.589 85.9947 83.2121 21.4974 64.2297 157.468 113.951 15.0398 156.181 21.7649 9.14727 154.38 142.516 11.8639 15.9175 79.5943 19.3302 5.39289 136.519 21.756 49.1899 114.763 5.99709 8.41809 15.51 4.00842 60.2641 12.3501 7.49391 2.77074 108.558 61.7146 5.84747 1.80107 2.14278 3.4458 12.3756 2.83243 3.82022 2.62215 2.06629 47.8886 1.56463 0.704458 0.924174 106.994 0.934646 0.613369
internal_count=691193 665194 660762 291068 116248 4432 3295 97606 25999 369694 4058 25270 18642 2335 23926 17904 6022 8212 174820 23787 25306 16932 5809 93548 11123 972 2743 18913 468 151033 960 2012 16717 344388 1137 10430 1344 1575 3279 26060 2405 4874 8589 13723 124973 3365 2994 731 341023 1401 874
is_linear=0
shrinkage=0.05


Tree=6
num_leaves=39
num_cat=0
split_feature=12 8 0 35 16 12 31 37 46 12 8 33 45 30 35 33 41 33 29 32 16 12 33 12 16 3 41 32 32 32 12 16 16 32 16 16 33 32
split_gain=259.919 243.972 49.6063 13.1989 12.1082 7.87663 7.40704 6.29751 6.08951 5.08504 4.98317 4.12507 3.7265 4.28326 4.12539 3.50919 3.44248 3.16653 2.9248 2.56284 1.63086 1.54169 0.866481 0.829853 0.788515 0.705592 0.678017 0.663324 0.616797 0.592758 0.470652 0.329405 0.246025 0.232694 0.0713009 0.149996 0.0521689 0.0326999
threshold=168.50000000000003 41.500000000000007 17.500000000000004 25.149999618530277 36.500000000000007 46.500000000000007 1.2250000238418581 1.5000000000000002 0.37509499490261083 50.500000000000007 30.500000000000004 18.599999427795414 0.5002756416797639 1.2250000238418581 40.000000000000007 20.550000190734867 1.2950000166893008 16.150000095367435 -79.937294006347642 -2.2499999999999996 79.500000000000014 173.50000000000003 15.34999990463257 257.50000000000006 45.500000000000007 215.50000000000003 1.3650000095367434 -1.3999999761581419 -1.3999999761581419 -1.2499999999999998 190.50000000000003 60.500000000000007 39.500000000000007 -1.3999999761581419 59.500000000000007 68.500000000000014 28.399999618530277 -4.9500000476837149
decision_type=2 2 2 2 2 2 2 2 2 2 2 2 2 2 2 2 2 2 2 2 2 2 2 2 2 2 2 2 2 2 2 2 2 2 2 2 2 2
left_child=1 2 5 4 -3 -1 8 11 32 10 25 17 18 19 -15 -6 -7 -8 33 -14 30 34 -9 -22 -17 -4 -20 -27 37 -10 -19 -26 -2 -11 -13 -36 -24 -12
right_child=6 3 9 -5 15 16 7 22 29 12 28 21 13 14 -16 24 -18 20 26 -21 23 -23 36 -25 31 27 -28 -29 -30 -31 -32 -33 -34 -35 35 -37 -38 -39
leaf_value=-0.029604459772603071 0 0.063977955421064062 0 -0.012349666068935835 -0.03853082133849331 -0.010438495448678222 0.043846871590265082 0.0091221055361318526 -0.043516025456291629 -0.03048662304966572 -0.013461531686337451 0 -0.027871864158934445 -0.05147430896386717 0 0.027981846617323461 0.054665893365351492 0 -0.003182542822281777 0.014247153999789056 -0.025429580864899128 0.0587140443734964 -0.026440174275381312 0.0043657276155680746 -0.015852973105143244 -0.064772324734150108 0.025493652980630395 -0.021231020072442812 0.018640064932417943 0 0.024017144032345086 0.0067190107051705444 0.036578571787117355 0 0.013389688116004071 0 0 0
leaf_weight=2.2856910026357609 1.452945070079293 65.55432604546877 0.64486456629128852 6.2069676332757799 1.9972912157645604 0.97442340521229098 12.950845047895202 0.95169454516144414 2.173924598537269 5.2091999005087928 1.4616971959612788 0.46085621658858089 6.0090260997239966 93.987670273732874 5.0377089905232415 4.142890825511131 12.796742574731978 0.99839900719234531 0.54889129562798045 4.0466022866312397 2.8703707798849791 136.40524462237045 1.4661442996912226 1.3554627874837022 0.64976547357946435 117.0000051048828 3.3555559446758707 5.1111395725019966 0.86784244339651095 1.4706709142774346 5.555833514459664 1.4905738145716894 5.3192117890139343 0.11910959030501533 1.1204152823574984 0.57883774824040291 0.41527090439194569 0.67086264196768763
leaf_count=7274 104 1154 1052 322 469 2195 1796 506 1043 11385 3017 617 13985 215736 8703 264 1531 585 1342 9896 857 12547 3746 117 191 357163 1170 25991 267 432 869 489 960 475 281 656 883 1123
internal_value=0.00124523 -0.024181 -0.0476637 0.0511319 0.0569831 0.0332812 0.0503738 0.0529549 0.00550469 -0.0533177 -0.0617146 0.0542784 -0.0433074 -0.0459317 -0.0491466 0 0.0477345 0.0286163 -0.00741883 -0.00929687 0.00436419 0.0580257 -0.00877456 -0.0135247 0.0185116 -0.0632467 0.0175157 -0.0635228 0 -0.0337303 0.019286 0 0.032346 -0.0288954 0.00122067 0.00706128 -0.024304 -0.0114897
internal_weight=515.715 340.169 260.127 80.0418 73.8348 16.0569 175.546 165.129 10.4168 244.07 125.756 162.296 118.314 109.081 99.0254 8.28052 13.7712 23.7309 9.23276 10.0556 10.7801 138.565 2.83311 4.22583 6.28323 122.756 3.90445 122.111 3.0004 3.6446 6.55423 2.14034 6.77216 5.32831 2.16011 1.69925 1.88142 2.13256
internal_count=691193 665194 662305 2889 2567 11000 25999 23460 2539 651305 388613 18325 262692 248320 224439 1413 3726 4224 14372 23881 2428 14101 5135 974 944 384206 2512 383154 4407 1475 1454 680 1064 11860 1554 937 4629 4140
is_linear=0
shrinkage=0.05


end of trees

feature_importances:
winter_crash_count=30
max_wind_kmh=30
total_snowfall_cm=28
domi_closure_count=24
daily_snowfall_cm=23
elevation_m=22
precip_total_mm=22
min_temp_c=21
snow_x_elevation=21
cumulative_snowfall_cm=19
snow_complaint_count=16
wind_x_roadwidth=13
mid_lng=11
max_daily_snowfall_cm=11
cumulative_thaw_degree_hours=11
plow_coverage_score=10
domi_full_closure_count=10
mid_lat=10
snow_complaint_count_log=9
day_offset=8
day_offset_x_snow=8
penndot_aadt=7
days_since_peak_snowfall=7
domi_class_enc=5
duration_days=5
speedlimit=2
plow_coverage_score_log=2
penndot_pavement_idx=2
snow_x_steep_slope=2
roadwidth=1
bridge_age_years=1
is_post_storm=1
temp_x_bridge=1

parameters:
[boosting: gbdt]
[objective: lambdarank]
[metric: ndcg]
[tree_learner: serial]
[device_type: cpu]
[data_sample_strategy: bagging]
[data: ]
[valid: ]
[num_iterations: 600]
[learning_rate: 0.05]
[num_leaves: 63]
[num_threads: 0]
[seed: 0]
[deterministic: 0]
[force_col_wise: 0]
[force_row_wise: 0]
[histogram_pool_size: -1]
[max_depth: 7]
[min_data_in_leaf: 200]
[min_sum_hessian_in_leaf: 0.001]
[bagging_fraction: 0.8]
[pos_bagging_fraction: 1]
[neg_bagging_fraction: 1]
[bagging_freq: 5]
[bagging_seed: 3]
[bagging_by_query: 0]
[feature_fraction: 0.8]
[feature_fraction_bynode: 1]
[feature_fraction_seed: 2]
[extra_trees: 0]
[extra_seed: 6]
[early_stopping_round: 0]
[early_stopping_min_delta: 0]
[first_metric_only: 0]
[max_delta_step: 0]
[lambda_l1: 0.5]
[lambda_l2: 2]
[linear_lambda: 0]
[min_gain_to_split: 0]
[drop_rate: 0.1]
[max_drop: 50]
[skip_drop: 0.5]
[xgboost_dart_mode: 0]
[uniform_drop: 0]
[drop_seed: 4]
[top_rate: 0.2]
[other_rate: 0.1]
[min_data_per_group: 100]
[max_cat_threshold: 32]
[cat_l2: 10]
[cat_smooth: 10]
[max_cat_to_onehot: 4]
[top_k: 20]
[monotone_constraints: ]
[monotone_constraints_method: basic]
[monotone_penalty: 0]
[feature_contri: ]
[forcedsplits_filename: ]
[refit_decay_rate: 0.9]
[cegb_tradeoff: 1]
[cegb_penalty_split: 0]
[cegb_penalty_feature_lazy: ]
[cegb_penalty_feature_coupled: ]
[path_smooth: 0]
[interaction_constraints: ]
[verbosity: -1]
[saved_feature_importance_type: 0]
[use_quantized_grad: 0]
[num_grad_quant_bins: 4]
[quant_train_renew_leaf: 0]
[stochastic_rounding: 1]
[linear_tree: 0]
[max_bin: 255]
[max_bin_by_feature: ]
[min_data_in_bin: 3]
[bin_construct_sample_cnt: 200000]
[data_random_seed: 1]
[is_enable_sparse: 1]
[enable_bundle: 1]
[use_missing: 1]
[zero_as_missing: 0]
[feature_pre_filter: 1]
[pre_partition: 0]
[two_round: 0]
[header: 0]
[label_column: ]
[weight_column: ]
[group_column: ]
[ignore_column: ]
[categorical_feature: ]
[forcedbins_filename: ]
[precise_float_parser: 0]
[parser_config_file: ]
[objective_seed: 5]
[num_class: 1]
[is_unbalance: 0]
[scale_pos_weight: 1]
[sigmoid: 1]
[boost_from_average: 1]
[reg_sqrt: 0]
[alpha: 0.9]
[fair_c: 1]
[poisson_max_delta_step: 0.7]
[tweedie_variance_power: 1.5]
[lambdarank_truncation_level: 30]
[lambdarank_norm: 1]
[label_gain: ]
[lambdarank_position_bias_regularization: 0]
[eval_at: 50,200]
[multi_error_top_k: 1]
[auc_mu_weights: ]
[num_machines: 1]
[local_listen_port: 12400]
[time_out: 120]
[machine_list_filename: ]
[machines: ]
[gpu_platform_id: -1]
[gpu_device_id: -1]
[gpu_use_dp: 0]
[num_gpu: 1]

end of parameters

pandas_categorical:[]
